{"inputSize":5,"hiddenSize":18,"outputSize":1,"weightsIh":[[0.4355091004484874,-0.427840123420103,0.5096865399038042,-0.39756101679927114,-0.1840181286167812,-0.6850524247603083,0.2953775315678651,0.2814813497199594,0.18564946207287725,0.23835496507768406,0.7527801691877145,-0.8382042236672376,0.07270327376431714,-0.3897878914516919,-0.262793951504625,-0.40057711459470513,-0.4343612120622173,-0.30791645957212327],[-0.32695376809368554,-0.48670289491919105,0.7336006936940551,-0.7833930028621233,0.47803763072003846,0.40256732369995674,0.15236146063315625,0.5913582794982026,-0.04158795153648502,-0.8397933606851777,-0.7846516951958766,-0.5026014306512178,-0.12016621109663654,-0.08505753045314562,-0.4358884077204668,-0.7186983393557848,-0.8340643992084182,0.002475857939366007],[-0.54231361133656,-0.18577253742892352,0.04840490554081808,0.6537616571623766,-0.13637954293571414,-0.023288090429970803,0.3730232352968749,0.505295393175231,-0.35448860908693486,-0.8693365021867956,-0.8101600031802394,0.3700839714618929,0.7430425882806159,-0.2495440579806179,0.3712008807748889,0.34685350159698763,-0.7942199674747451,0.10270272812869413],[-0.948393468678898,-0.3388772836366109,-0.48552543874873094,0.11780738261186423,0.6402225930158286,0.8209485537385652,-0.8773323833336285,0.7453317191478337,0.2556891635942428,0.07533236058891994,-0.6406731819363639,0.5311269367882393,-0.7497746053448884,0.6931240097930557,0.529525920914717,0.6851167067058027,-0.4053496880967274,0.6233975780427389],[1.0157568062464686,3.3383543097500663,1.9292973990256561,-1.658837973100114,-2.6083086760079235,-0.015844015796326688,-0.026551550484342778,0.9905364196661947,-0.3664812856439944,-0.21304956431841282,-1.4246112333502112,0.8313944693893242,-1.7934421655193056,1.1639272207581834,1.9004818765279063,1.685506337732306,0.1187253209392468,-3.1408225055448202]],"biasesH":[-0.24060779756285183,-0.7222860568989601,-1.1704633619501557,0.7216239524280038,0.6681312442729509,0.7493396151831547,-0.19484028235934428,-0.374524326985012,0.8444835298770315,-1.0305762416545,0.8278608176169591,0.6021908766565915,0.7967918213160016,-0.834257143372117,-0.727072957892673,-0.732032745050244,0.11099391967806262,1.184741198917439],"weightsHo":[[1.0487361785330434],[3.6058993990953625],[2.0600675913686395],[-1.6796325146034465],[-3.0575969008957036],[-0.04018888971231712],[-0.29594687716297985],[0.8201765621631985],[-0.8564761261703419],[0.18107770933916334],[-1.7585320627277725],[0.43529049152894794],[-2.0317887554640905],[1.0343087155054176],[1.7113331846960174],[1.634054118966615],[-0.2326575584729569],[-3.676064501056209]],"biasesO":[-0.32927417160246586]}