{"inputSize":10,"hiddenSize":6,"outputSize":4,"weightsIh":[[12.415967341637607,132.31847943835305,21.37022333344059,-12.926149676309084,-4.776643635610347,10.732482243326878],[-11.471472172932287,-44.36374245207304,-9.631014869891677,-19.681689225912553,-6.787129503499054,-12.26146905071605],[-11.398044172512963,-37.16804683720728,-9.125629684885164,-19.664995263996754,-6.87906337723499,-13.921495556336147],[-11.611797481523206,-45.88536145992971,-9.03523195754743,-19.593212391102494,-6.822747999841995,-15.319783968839733],[-12.284907340932048,-46.15626429169203,-9.000554942112004,-19.441380649990204,-7.5712792175716,-15.71226697474225],[-13.31155143970559,-46.48450438358913,-8.957564567517146,-19.15591563627339,-8.034622653664432,-15.751598455024393],[-13.490412152104666,-46.62201240902179,-8.970566124084815,-19.07408593560455,-8.695485667557845,-15.48755202548947],[-13.387694528808222,-45.829502241085684,-8.972712225306553,-19.05741532195117,-7.431288790676814,-14.701127597130382],[-12.41494672734955,-46.079142820911066,-9.072502819823809,-19.065792698937514,-8.18247714631988,-14.815085629686239],[-13.985603226037776,-45.791088636052066,-8.924917768969467,-19.12805514838826,-8.658364227555522,-14.68248872038463]],"biasesH":[10.338496177239179,67.51665065357102,0.0460578746979119,58.682736794591534,10.379902335119349,35.69014926435886],"weightsHo":[[-2.2108351219289304,-7.503555716405704,8.568765888795076,-55.311825224004686],[-190.6983139895443,155.15557068356904,-11.20697630342177,10.116209420108452],[-2.034622036748599,-20.071695358121183,8.983492023885326,37.03586169470457],[-11.575053439985648,-86.10965765608465,17.684823629816062,46.26933531815306],[-3.1541350539301023,-17.878376276724218,-36.970708395476095,27.30961648836912],[-5.231710491331562,-61.48162934456685,-6.170448834800454,-55.71042607614424]],"biasesO":[1.8523959073047918,-1.8523959068002522,-1.2264259377512399,-0.01808612073369742]}