{"inputSize":10,"hiddenSize":6,"outputSize":4,"weightsIh":[[-23.353491438883445,-11.588764813677276,27.51598621723601,-1.0444801983855712,-26.098137292360853,-14.601683046783188],[-23.54083054293602,-7.5552620603023515,26.891536647527445,-3.2502661628790577,-26.181544882324523,-14.611475608364955],[-23.537629731063145,-14.972901357163648,29.95147566046264,-3.705274819873962,-25.59083630025188,-14.499899411086533],[-23.604130433824533,-11.853712496056795,28.600573740075877,-5.745634935602279,-26.007492570173252,-15.14315633424152],[-23.55489190560725,-14.936242848524362,29.413180471778162,-6.842750663364552,-24.55809044065805,-15.267105622670277],[-23.711561924142373,-6.977523974149968,-26.436590425497087,-6.432234751477284,-25.863387893997672,-14.753674233570859],[-23.707550020096516,-12.711254099378392,-26.925817082586153,-7.157168234121608,-25.685873495713317,-14.507286374981309],[-23.33863208608905,-18.615477864626104,-26.209487874727913,-7.586191575917148,-25.73653254497329,-14.472939783340355],[-23.17826432798904,-14.672449886750378,-26.699035099082277,-9.07283271467095,-25.76771102394978,-14.240177266031182],[-23.401678809267164,-14.946226155611988,-26.97425166335432,-10.85526028842148,-24.44621689939843,-13.760645906558814]],"biasesH":[177.18928994548054,-2.2892142216214126,64.19625167760178,-4.899792239032011,86.9687906546759,15.833264941579968],"weightsHo":[[-40.327608806831726,25.45464023522454,7.449948876819615,4.887382731070689],[-1.3410898609319737,-5.762746908361227,-0.5838895066466945,-27.34561258451436],[0.48695927595159705,-6.863632958093669,1.3691441166487541,-2.205788414602334],[-1.2982160621485952,-6.213169113630246,3.7638225997567165,0.18583973238958973],[-8.810604772855758,-35.29140072343525,16.987763965279928,6.889594073369522],[-3.8724644850858674,-10.096944993342968,-37.155751791138826,8.495834941329223]],"biasesO":[9.31970069509711,-6.949627454942693,-5.165573845776808,3.2683578488568865]}