{"inputSize":10,"hiddenSize":12,"outputSize":4,"weightsIh":[[9.9123093405893,-10.882737553162492,-2.218467791352501,-13.647344349271489,-30.39651725203644,-0.23206613820539362,-13.440773660650816,-15.738906247200871,-20.743971716154576,-19.538365524212118,-2.698274703813715,12.12420702954181],[-9.635729275062141,14.687350304411527,-55.193290967542524,57.16310929283641,-27.959186206342757,-2.080610384868474,-13.632062029531125,15.08361374104659,-25.331166920901765,-19.91813340958317,-2.96901887736523,-13.475521301490318],[-9.362753066810418,-10.467653377159571,-15.034042694539409,-16.138777198132995,31.328766532698555,-7.1079556002611115,15.285511495163421,-14.474129584928315,-17.170973885394794,-45.52068477787902,-3.9268597777481187,-7.724085453891151],[-10.114694120990347,-12.594236064272733,-12.18989037918777,-21.74192999834444,-29.94379860314813,-5.652000910510439,-13.140835345296678,-14.957221079244924,27.32023360050932,-19.11303079091895,-2.0274769299594353,-14.835214592260465],[-11.106271986296571,-13.60316370080947,-6.559764468294449,-21.684780555723968,-30.41707041739083,-6.2122231440507205,-13.007701667053835,-15.005726661569021,27.52367385502419,-18.88464307738613,-4.3775137850604136,-14.976756643590328],[-12.25599017333045,-14.711195692810149,1.263878633464064,-21.405721674735826,-30.3676822081627,-5.066395102070524,-13.347898396725352,-14.899799795013758,28.281739811831585,-18.71313647853816,-3.2147140819283755,-15.30178293092536],[-12.737973958587247,-14.507891632685098,3.2139315078996704,-21.38688301200265,-29.49806314557776,-6.350942540391919,-13.212960380262015,-15.098628931265699,29.98903309184384,-18.539215421485885,-5.181942060863902,-15.114587744044455],[-11.05526871230212,-14.961956989472716,5.362565978026273,-21.29114119494663,-30.0951105786442,-6.458573057652215,-13.220561685413509,-16.13461375067048,27.137774968660285,-18.549668915558687,-5.769733377096479,-15.32370740077614],[-11.364010161871708,-14.638009619260359,10.0499692399452,-21.557742860409782,-25.213074437479616,-8.035920953847816,-13.173651402675105,-15.922484715690903,27.115568008974396,-18.659871989251204,-7.140984690495887,-15.275247342766967],[-11.134936794702384,-15.122325480328053,7.337632723265082,-21.32114824049143,-29.36116930327118,-10.376444984590163,-13.215814491850782,-15.701211232290948,27.18389886623354,-18.716256586334456,-9.610506711244419,-15.335004270268694]],"biasesH":[4.5985055165817466,5.304164741578502,100.2314864442077,29.30039939947608,65.69248628607131,-2.9567327505660077,18.016991305506124,16.97616497016949,-26.319415718546296,58.94832625561476,-1.113745142674441,15.854937738312325],"weightsHo":[[-2.3084951875306285,-7.146152584168278,4.8355664465793655,-28.7854682395638],[-4.55011763498992,1.2317520917287235,-8.073137245508299,-30.178946905923652],[-9.729275513312107,7.214283937090689,-8.167257555870462,0.6479456505034996],[-12.223307341842213,11.913587619561127,-20.956748278905064,23.072948802007133],[-5.112959000351432,4.344055321964958,-20.56775354689311,-23.742558084283242],[-2.294893051768942,-5.766787531406859,2.0550276655585495,8.051493086133146],[-1.9371414173195767,-25.715562118537473,39.05584031551549,33.772061664607286],[-2.966933373450264,-18.9467105246736,22.546842392219897,4.436297287175143],[17.498005105367607,-11.621634974643516,-11.04087202904776,19.444332231584823],[-12.832262162242776,-20.198302981405515,40.47317534251928,11.372207446870783],[-2.3643641924372116,-6.793807845692036,2.531365975059025,-0.744747069726913],[-7.0989690014893645,-14.164472761254043,9.768906524055433,19.169931151441727]],"biasesO":[-4.681723812496251,1.30997216160571,17.074201824684614,-19.014656989232535]}