{"inputSize":10,"hiddenSize":12,"outputSize":4,"weightsIh":[[7.649352920473378,35.95127485145933,194.93522711202317,28.208940217218927,37.08314564717714,-7.861793986741175,45.83378063879552,26.67139392957774,-16.547362540319522,7.635175583122505,-13.481741876862268,-19.499004098815064],[-13.24764878328413,-22.59625217091613,-43.04744549999138,27.344237294341802,92.94720913303682,4.38914444335518,-16.22709502467559,-6.3092196499072255,-18.936321777157108,14.127958846222576,8.984424336064642,58.713809306355195],[-6.251649485737977,4.86246040975333,-33.00792831720528,28.335547273054797,-8.690722667444597,-5.572694496887396,33.36152722475093,-9.670849333168118,-16.85337875243572,-12.537825214346512,-10.43848126080129,-20.752643359028006],[-4.98408425594096,-20.32119260067232,-51.51993201157992,27.675623439594688,-8.515987145322912,-5.508775505830378,36.92497883252452,-10.283990445578015,-14.36767556538927,-12.160042002048632,-13.772139661429767,-19.659801626751157],[-5.190023864986533,-24.338916995954346,-48.18747504963148,-29.10020621013511,19.411261493462096,-6.304191488588058,-35.840826752798684,-11.155308035755182,-19.768981825314473,-12.17174520079716,-7.876052659701602,-21.178158373429167],[-5.355384138972355,-24.297942762419307,-48.241301813767656,-29.005168060313228,19.520481012108103,-6.3626636376126875,-35.87707922240775,-11.012163389075527,-19.853821827066383,-12.194563947785628,-7.782727897215411,-21.256297276750658],[-5.703455711315425,-24.295692868924885,-47.717182737870985,-28.866142945385413,19.372537513635752,-7.326251948165117,-35.85932272004106,-10.914618503017275,-19.849347662948972,-12.233762523521253,-5.399963541773231,-21.384766244918236],[-6.3163774115864015,-24.29587519393794,-47.53952992735811,-29.717736772063894,19.436348004629227,-7.388355822801232,-35.80877119550167,-10.98076685906237,-19.85036329994648,-12.28577511297257,-9.860816809315457,-21.31726658778968],[-6.5405600765227545,-24.2964118081136,-47.672775646522226,-28.416078242551873,19.40654269195748,-6.87378193691467,-35.80359057802963,-11.063848460648616,-19.838344075576135,-12.301958598399073,-6.884655898393671,-21.321001614407095],[-6.237467639623423,-24.295633326310345,-47.34003309993582,-29.064242925441405,19.55263975550424,-7.901957068793535,-35.8124054233837,-10.920281548359606,-19.842060588343912,-12.277862107087138,-8.82914676652182,-21.38860037557884]],"biasesH":[-4.032693863152946,39.1850609249244,104.23633065039137,12.731901777749853,-65.25113607624253,7.233294587274724,49.22846689400282,-2.329148350929604,62.9098964178738,4.278071003886265,-1.0892521704824123,28.986189455252756],"weightsHo":[[-3.78163337999386,-7.003973537636731,8.128726656512672,19.084564725031328],[-2.790480238482884,-56.44921600853596,-26.61535642151994,17.152043011200224],[-119.71647127197885,76.41980485229244,16.358244645822282,-25.405517010206836],[-5.397619053567593,4.893911146120986,8.569724765319455,-59.61151529855185],[74.23826457254667,-71.29884538308208,252.75213705370277,5.292313002424408],[-1.9580461395744848,-12.297390850445552,-41.849623799020435,-16.80599858588834],[10.048291498299198,-11.057802120097374,-11.54087697840049,51.12971058622577],[-3.0319973801592353,-14.408748493921445,25.597786320468327,15.648029721618208],[-13.260466560286222,-91.52065080620773,272.9779417470666,14.020117897421915],[-0.8681990891944167,-13.439254765107783,-54.797157562773094,-45.164451205684585],[-3.991137719904031,-9.847935953361283,-72.03648454791669,25.992832764342825],[-9.957755642793158,10.607096839512584,-98.63020964110787,43.866587926868064]],"biasesO":[-71.08758766124795,68.14824082837843,-255.43005200380017,-4.098839165838988]}