{"inputSize":10,"hiddenSize":6,"outputSize":4,"weightsIh":[[-8.469167796456988,-2.4273060790523577,-6.883683381477638,7.129671414127513,-10.130946092564269,1.5104755057054797],[-8.468720539046886,-2.427051267833917,-6.884759932736448,7.128390424498443,-10.13105174337076,1.510485286938804],[-8.468396117692361,-2.426891343561692,-6.88558170884412,7.127695887287156,-10.131084617153572,1.5104880861217556],[-8.46819537911666,-2.4267910256350596,-6.886187118325407,7.127326256184698,-10.131035202193837,1.5104885444210268],[-8.468089268416387,-2.4267276421765773,-6.886616949105367,7.127130022445427,-10.130893197084038,1.5104886923933287],[-8.468046138452804,-2.4266873705695735,-6.886911305594124,7.127024615592641,-10.130640875881399,1.5104889143010116],[-8.46803490763396,-2.4266615857092364,-6.887106950950144,7.126966139044509,-10.130262560350733,1.5104885294485688],[-8.468021472085564,-2.4266441705914303,-6.8872346414673284,7.126929456390192,-10.129761403754326,1.5104862485862536],[-8.467966991854098,-2.4266301327989166,-6.887316235199521,7.126897085033346,-10.129177471462388,1.5104805875095648],[-8.467832560935445,-2.4266162015328026,-6.887361546146301,7.126856541539975,-10.128602152156226,1.510470215323986]],"biasesH":[30.097871698490195,11.345099979228007,48.62568200378498,-39.547169501748854,15.164646715188153,-2.476948028263737],"weightsHo":[[-1.860933474124539,-21.329732865881585,25.24410236738281,24.134500886490354],[-4.304205437802322,-10.503729564176465,-12.742867131931265,-29.321218563290447],[-25.4346425689635,24.96891386025548,18.84510752749171,-40.890407427656044],[18.028663859869827,-5.335707274587109,19.60966812071938,-25.634770690541806],[-7.123402198492731,0.5050217190474329,-18.137415022582413,31.217634307182184],[1.3306429833630813,0.5732174255741899,-4.124312111892757,52.453815959247436]],"biasesO":[-11.858559313211362,-2.603847044343761,-19.52968235101134,6.238528026167687]}