{"inputSize":10,"hiddenSize":12,"outputSize":4,"weightsIh":[[-5.21426631679847,-4.386305167694168,-3.794558557896573,-6.81006341541537,7.305860412350612,-5.679223113471574,-4.358134333546819,-5.418704638891609,-5.928772078130572,-2.5736470920653445,-2.8623324078256527,-2.261890680109995],[-5.213634793391948,-4.385896762761436,-3.771294240305516,-6.782108517686332,7.30667008062415,-5.68007502689342,-4.357682228611683,-5.4272545301626955,-5.930144948924038,-2.796149836514181,-2.877701653277248,-1.7561064600517389],[-5.21323801118952,-4.385691719050701,-3.7682205923313226,-6.731054631896315,7.306581546546364,-5.680771581760734,-4.357447499557721,-5.435908096203788,-5.931170320127613,-3.178723537497635,-2.9040565710879127,-1.2104696537776418],[-5.212989500557201,-4.38548723274137,-3.6089947779656586,-6.7750932437531635,7.307162105320706,-5.6802580985632645,-4.357228700386701,-5.428926476333574,-5.931911364988227,-2.9581036225484745,-2.8812272467751585,-1.6622801542729169],[-5.21284494183402,-4.385406361678702,-3.381350938103713,-6.7785580821820295,7.307277393820138,-5.680262708463393,-4.35713650346872,-5.429459986493814,-5.9324236952465075,-3.183213241042887,-2.8806320242678516,-1.6577782572678568],[-5.2127616913949435,-4.385349024882498,-3.2144224119101334,-6.795760752273807,7.307613138796786,-5.68011703219065,-4.35707247982442,-5.428400251054494,-5.93276522762449,-3.31487062017314,-2.8738521848505254,-1.7931534924327766],[-5.212715597469427,-4.385319124056201,-3.1091855678587934,-6.806962321970994,7.307832165751329,-5.680048010628332,-4.357038096685462,-5.42827782003805,-5.932985016676427,-3.452246137954925,-2.8700368853976697,-1.8621316896399454],[-5.212687439239432,-4.3852835374040655,-3.0283976164081636,-6.822988236082738,7.308115939037194,-5.679820912141769,-4.357000402198058,-5.425749465436789,-5.933123818786589,-3.4560234988880434,-2.862498828308738,-2.064434043603298],[-5.212665049382916,-4.385250812442891,-2.9279328751533664,-6.840630329264531,7.308445980963939,-5.679570338220881,-4.356966667916054,-5.423213068364842,-5.9332083080480595,-3.516850543556109,-2.85451647264056,-2.3061484404480215],[-5.212635989981061,-4.385218395738853,-2.945178329677502,-6.853370954887529,7.308836953002924,-5.679285929466256,-4.356933846246067,-5.4200405910469645,-5.933248528429611,-3.3125175987755533,-2.8476818040113594,-2.6241704670124815]],"biasesH":[35.472326628236736,24.349043844955553,1.129386356048141,10.019472275952936,-25.479338854643498,25.61078044616636,24.207350959064033,13.400365252309253,41.32983519133809,1.0051783957359726,5.637724766115734,0.2277893789648087],"weightsHo":[[-20.171361883453173,-0.7113180903699833,11.819520648149847,-13.375889608650308],[-7.4134177596232185,0.013456154297775113,-18.839431273463962,11.419120838896784],[-3.926819640688938,-0.045554771475165894,-2.5224775754839244,-9.856773942132046],[-4.3359773898336815,-1.1670440800580197,-12.855752392097003,20.985270434930342],[4.040787570877215,16.455708589392913,-17.01179296602784,-18.728792376460007],[-1.581968572874282,-5.212745936928657,3.7475706396427064,-20.89453139540288],[-6.4095121260866215,-0.40622741824238906,-18.81672007812722,11.280068696978242],[0.23721966194475005,-4.039848113339522,2.6179956768189085,-16.255548093383933],[-20.51224555635299,-0.6336091311967047,17.77162211782542,-16.808846901306833],[-6.564981196997734,0.6349956477948225,-1.9555671754731632,-8.22133034663231],[-2.760619063530218,-3.0544886784796956,-5.807726867595542,-4.081584643811531],[-4.525706814882641,0.23011962425353877,-0.5800423744617298,-4.481443468456022]],"biasesO":[3.1168241494273863,-1.1654735360113933,12.91189831043121,37.64597112844191]}